digraph Tree {
node [shape=box, style="filled, rounded", color="black", fontname="helvetica"] ;
edge [fontname="helvetica"] ;
0 [label="cp <= 0.5\ngini = 0.497\nsamples = 242\nvalue = [111, 131]\nclass = 1", fillcolor="#e1f0fb"] ;
1 [label="ca <= 0.5\ngini = 0.405\nsamples = 117\nvalue = [84, 33]\nclass = 0", fillcolor="#efb287"] ;
0 -> 1 [labeldistance=2.5, labelangle=45, headlabel="True"] ;
2 [label="thal <= 2.5\ngini = 0.494\nsamples = 54\nvalue = [24, 30]\nclass = 1", fillcolor="#d7ebfa"] ;
1 -> 2 ;
3 [label="thalach <= 119.5\ngini = 0.367\nsamples = 33\nvalue = [8, 25]\nclass = 1", fillcolor="#78bced"] ;
2 -> 3 ;
4 [label="gini = 0.0\nsamples = 2\nvalue = [2, 0]\nclass = 0", fillcolor="#e58139"] ;
3 -> 4 ;
5 [label="thal <= 1.5\ngini = 0.312\nsamples = 31\nvalue = [6, 25]\nclass = 1", fillcolor="#69b5eb"] ;
3 -> 5 ;
6 [label="age <= 54.5\ngini = 0.48\nsamples = 5\nvalue = [3, 2]\nclass = 0", fillcolor="#f6d5bd"] ;
5 -> 6 ;
7 [label="gini = 0.0\nsamples = 3\nvalue = [3, 0]\nclass = 0", fillcolor="#e58139"] ;
6 -> 7 ;
8 [label="gini = 0.0\nsamples = 2\nvalue = [0, 2]\nclass = 1", fillcolor="#399de5"] ;
6 -> 8 ;
9 [label="age <= 60.0\ngini = 0.204\nsamples = 26\nvalue = [3, 23]\nclass = 1", fillcolor="#53aae8"] ;
5 -> 9 ;
10 [label="gini = 0.0\nsamples = 18\nvalue = [0, 18]\nclass = 1", fillcolor="#399de5"] ;
9 -> 10 ;
11 [label="age <= 63.5\ngini = 0.469\nsamples = 8\nvalue = [3, 5]\nclass = 1", fillcolor="#b0d8f5"] ;
9 -> 11 ;
12 [label="thalach <= 155.5\ngini = 0.48\nsamples = 5\nvalue = [3, 2]\nclass = 0", fillcolor="#f6d5bd"] ;
11 -> 12 ;
13 [label="gini = 0.0\nsamples = 2\nvalue = [2, 0]\nclass = 0", fillcolor="#e58139"] ;
12 -> 13 ;
14 [label="thalach <= 166.0\ngini = 0.444\nsamples = 3\nvalue = [1, 2]\nclass = 1", fillcolor="#9ccef2"] ;
12 -> 14 ;
15 [label="gini = 0.0\nsamples = 2\nvalue = [0, 2]\nclass = 1", fillcolor="#399de5"] ;
14 -> 15 ;
16 [label="gini = 0.0\nsamples = 1\nvalue = [1, 0]\nclass = 0", fillcolor="#e58139"] ;
14 -> 16 ;
17 [label="gini = 0.0\nsamples = 3\nvalue = [0, 3]\nclass = 1", fillcolor="#399de5"] ;
11 -> 17 ;
18 [label="oldpeak <= 0.65\ngini = 0.363\nsamples = 21\nvalue = [16, 5]\nclass = 0", fillcolor="#eda877"] ;
2 -> 18 ;
19 [label="age <= 42.0\ngini = 0.494\nsamples = 9\nvalue = [4, 5]\nclass = 1", fillcolor="#d7ebfa"] ;
18 -> 19 ;
20 [label="gini = 0.0\nsamples = 3\nvalue = [3, 0]\nclass = 0", fillcolor="#e58139"] ;
19 -> 20 ;
21 [label="chol <= 237.5\ngini = 0.278\nsamples = 6\nvalue = [1, 5]\nclass = 1", fillcolor="#61b1ea"] ;
19 -> 21 ;
22 [label="gini = 0.0\nsamples = 5\nvalue = [0, 5]\nclass = 1", fillcolor="#399de5"] ;
21 -> 22 ;
23 [label="gini = 0.0\nsamples = 1\nvalue = [1, 0]\nclass = 0", fillcolor="#e58139"] ;
21 -> 23 ;
24 [label="gini = 0.0\nsamples = 12\nvalue = [12, 0]\nclass = 0", fillcolor="#e58139"] ;
18 -> 24 ;
25 [label="age <= 63.5\ngini = 0.091\nsamples = 63\nvalue = [60, 3]\nclass = 0", fillcolor="#e68743"] ;
1 -> 25 ;
26 [label="gini = 0.0\nsamples = 47\nvalue = [47, 0]\nclass = 0", fillcolor="#e58139"] ;
25 -> 26 ;
27 [label="restecg <= 0.5\ngini = 0.305\nsamples = 16\nvalue = [13, 3]\nclass = 0", fillcolor="#eb9e67"] ;
25 -> 27 ;
28 [label="gini = 0.0\nsamples = 10\nvalue = [10, 0]\nclass = 0", fillcolor="#e58139"] ;
27 -> 28 ;
29 [label="fbs <= 0.5\ngini = 0.5\nsamples = 6\nvalue = [3, 3]\nclass = 0", fillcolor="#ffffff"] ;
27 -> 29 ;
30 [label="gini = 0.0\nsamples = 3\nvalue = [0, 3]\nclass = 1", fillcolor="#399de5"] ;
29 -> 30 ;
31 [label="gini = 0.0\nsamples = 3\nvalue = [3, 0]\nclass = 0", fillcolor="#e58139"] ;
29 -> 31 ;
32 [label="sex <= 0.5\ngini = 0.339\nsamples = 125\nvalue = [27, 98]\nclass = 1", fillcolor="#70b8ec"] ;
0 -> 32 [labeldistance=2.5, labelangle=-45, headlabel="False"] ;
33 [label="ca <= 1.5\ngini = 0.042\nsamples = 47\nvalue = [1, 46]\nclass = 1", fillcolor="#3d9fe6"] ;
32 -> 33 ;
34 [label="gini = 0.0\nsamples = 43\nvalue = [0, 43]\nclass = 1", fillcolor="#399de5"] ;
33 -> 34 ;
35 [label="fbs <= 0.5\ngini = 0.375\nsamples = 4\nvalue = [1, 3]\nclass = 1", fillcolor="#7bbeee"] ;
33 -> 35 ;
36 [label="gini = 0.0\nsamples = 3\nvalue = [0, 3]\nclass = 1", fillcolor="#399de5"] ;
35 -> 36 ;
37 [label="gini = 0.0\nsamples = 1\nvalue = [1, 0]\nclass = 0", fillcolor="#e58139"] ;
35 -> 37 ;
38 [label="age <= 56.5\ngini = 0.444\nsamples = 78\nvalue = [26, 52]\nclass = 1", fillcolor="#9ccef2"] ;
32 -> 38 ;
39 [label="thalach <= 148.5\ngini = 0.3\nsamples = 49\nvalue = [9, 40]\nclass = 1", fillcolor="#66b3eb"] ;
38 -> 39 ;
40 [label="oldpeak <= 0.7\ngini = 0.408\nsamples = 7\nvalue = [5, 2]\nclass = 0", fillcolor="#efb388"] ;
39 -> 40 ;
41 [label="fbs <= 0.5\ngini = 0.444\nsamples = 3\nvalue = [1, 2]\nclass = 1", fillcolor="#9ccef2"] ;
40 -> 41 ;
42 [label="gini = 0.0\nsamples = 2\nvalue = [0, 2]\nclass = 1", fillcolor="#399de5"] ;
41 -> 42 ;
43 [label="gini = 0.0\nsamples = 1\nvalue = [1, 0]\nclass = 0", fillcolor="#e58139"] ;
41 -> 43 ;
44 [label="gini = 0.0\nsamples = 4\nvalue = [4, 0]\nclass = 0", fillcolor="#e58139"] ;
40 -> 44 ;
45 [label="oldpeak <= 3.65\ngini = 0.172\nsamples = 42\nvalue = [4, 38]\nclass = 1", fillcolor="#4ea7e8"] ;
39 -> 45 ;
46 [label="trestbps <= 172.0\ngini = 0.136\nsamples = 41\nvalue = [3, 38]\nclass = 1", fillcolor="#49a5e7"] ;
45 -> 46 ;
47 [label="trestbps <= 111.0\ngini = 0.095\nsamples = 40\nvalue = [2, 38]\nclass = 1", fillcolor="#43a2e6"] ;
46 -> 47 ;
48 [label="chol <= 228.0\ngini = 0.48\nsamples = 5\nvalue = [2, 3]\nclass = 1", fillcolor="#bddef6"] ;
47 -> 48 ;
49 [label="gini = 0.0\nsamples = 2\nvalue = [0, 2]\nclass = 1", fillcolor="#399de5"] ;
48 -> 49 ;
50 [label="chol <= 276.0\ngini = 0.444\nsamples = 3\nvalue = [2, 1]\nclass = 0", fillcolor="#f2c09c"] ;
48 -> 50 ;
51 [label="gini = 0.0\nsamples = 2\nvalue = [2, 0]\nclass = 0", fillcolor="#e58139"] ;
50 -> 51 ;
52 [label="gini = 0.0\nsamples = 1\nvalue = [0, 1]\nclass = 1", fillcolor="#399de5"] ;
50 -> 52 ;
53 [label="gini = 0.0\nsamples = 35\nvalue = [0, 35]\nclass = 1", fillcolor="#399de5"] ;
47 -> 53 ;
54 [label="gini = 0.0\nsamples = 1\nvalue = [1, 0]\nclass = 0", fillcolor="#e58139"] ;
46 -> 54 ;
55 [label="gini = 0.0\nsamples = 1\nvalue = [1, 0]\nclass = 0", fillcolor="#e58139"] ;
45 -> 55 ;
56 [label="chol <= 244.5\ngini = 0.485\nsamples = 29\nvalue = [17, 12]\nclass = 0", fillcolor="#f7dac5"] ;
38 -> 56 ;
57 [label="ca <= 0.5\ngini = 0.494\nsamples = 18\nvalue = [8, 10]\nclass = 1", fillcolor="#d7ebfa"] ;
56 -> 57 ;
58 [label="age <= 65.5\ngini = 0.198\nsamples = 9\nvalue = [1, 8]\nclass = 1", fillcolor="#52a9e8"] ;
57 -> 58 ;
59 [label="gini = 0.0\nsamples = 8\nvalue = [0, 8]\nclass = 1", fillcolor="#399de5"] ;
58 -> 59 ;
60 [label="gini = 0.0\nsamples = 1\nvalue = [1, 0]\nclass = 0", fillcolor="#e58139"] ;
58 -> 60 ;
61 [label="thalach <= 144.5\ngini = 0.346\nsamples = 9\nvalue = [7, 2]\nclass = 0", fillcolor="#eca572"] ;
57 -> 61 ;
62 [label="thal <= 1.5\ngini = 0.444\nsamples = 3\nvalue = [1, 2]\nclass = 1", fillcolor="#9ccef2"] ;
61 -> 62 ;
63 [label="gini = 0.0\nsamples = 1\nvalue = [1, 0]\nclass = 0", fillcolor="#e58139"] ;
62 -> 63 ;
64 [label="gini = 0.0\nsamples = 2\nvalue = [0, 2]\nclass = 1", fillcolor="#399de5"] ;
62 -> 64 ;
65 [label="gini = 0.0\nsamples = 6\nvalue = [6, 0]\nclass = 0", fillcolor="#e58139"] ;
61 -> 65 ;
66 [label="oldpeak <= 3.1\ngini = 0.298\nsamples = 11\nvalue = [9, 2]\nclass = 0", fillcolor="#eb9d65"] ;
56 -> 66 ;
67 [label="trestbps <= 119.0\ngini = 0.18\nsamples = 10\nvalue = [9, 1]\nclass = 0", fillcolor="#e88f4f"] ;
66 -> 67 ;
68 [label="gini = 0.0\nsamples = 1\nvalue = [0, 1]\nclass = 1", fillcolor="#399de5"] ;
67 -> 68 ;
69 [label="gini = 0.0\nsamples = 9\nvalue = [9, 0]\nclass = 0", fillcolor="#e58139"] ;
67 -> 69 ;
70 [label="gini = 0.0\nsamples = 1\nvalue = [0, 1]\nclass = 1", fillcolor="#399de5"] ;
66 -> 70 ;
}